{
  "features": {
      "LV_POINT_VALUE_1" : 0,
      "LV_POINT_VALUE_2" : 1,
      "LV_PUNCTUATION_-" : 2,
      "LV_DISTANCE" : 3,
      "LV_TERMS_BETWEEN" : 4,
      "LV_VALUES_BETWEEN" : 5,
      "LV_IS_CLOSEST_OFF" : 6,
      "LV_POINT_TERM_1" : 7,
      "LV_PUNCTUATION_," : 8,
      "LV_POINT_TERM_2" : 9,
      "LV_CONJ_AND" : 10,
      "LV_PUNCTUATION_(" : 11,
      "LV_PUNCTUATION_)" : 12,
      "LV_NEW_LINE" : 13,
      "LV_POINT_VALUE_3" : 14,
      "LV_POINT_TERM_3" : 15,
      "LV_POINT_VALUE_4" : 16,
      "LV_POINT_TERM_4" : 17,
      "LV_POINT_VALUE_5" : 18,
      "LV_POINT_TERM_5" : 19,
      "LV_POINT_VALUE_6" : 20,
      "LV_POINT_TERM_6" : 21,
      "LV_PUNCTUATION_:" : 22,
      "LV_PUNCTUATION_/" : 23,
      "LV_POINT_VALUE_7" : 24,
      "LV_POINT_VALUE_8" : 25,
      "LV_POINT_VALUE_9" : 26,
      "LV_POINT_TERM_7" : 27
  },
  "states": ["NONE", "LINKED"],
  "initial_weights": [9.101949181445066E-13],
  "final_weights": [0.41527610384117847, -0.4152761038412117],
  "transitions": [
    [
      {
        "weights": [
            1.948460408129097,
            2.1917713691489027,
            0.11382946686932403,
            -0.4917795885467056,
            -0.4917795885467056,
            -0.4917795885467056,
            -0.4917795885467056,
            1.2692718742906555,
            0.5958840150272929,
            -0.3126153117352406,
            -0.15254682492272004,
            -1.5952091708193226,
            0.8159446027034887,
            0.8970558529173169,
            0.6847510456312684,
            -0.28697738236431874,
            0.5925579771546773,
            -0.48803717343478936,
            0.12891618877889793,
            -0.7108321025831932,
            -0.007909769617566533,
            0.024246030475942374,
            -0.12260560552649033,
            0.04107091767871278,
            -0.21256377843794852,
            -0.2941525516217037,
            0.012521229066772822,
            0.0045998833417119555
        ],
        "default_weight": 0.9021201729794132
      },
      {
        "weights": [
            -2.8643006133829116,
            -0.6391665306295066,
            -0.11382946686933013,
            0.003945244838213227,
            0.003945244838213227,
            0.003945244838213227,
            0.003945244838213227,
            -0.04566672424986705,
            -2.9702114916970825,
            -0.3584900354539578,
            -1.6876118105884186,
            1.4677997094939408,
            1.1698873249904027,
            -0.8827540802318264,
            -0.11283055712009836,
            -0.08672273623427663,
            -0.0845934163286655,
            -0.059699177624875484,
            -0.05357598478175747,
            -0.0324813108594243,
            -0.03945775182065153,
            -0.014617040794458734,
            1.27237164108407,
            -0.017637426993914674,
            -0.025556277129942528,
            -0.014830691734039314,
            -0.005994587736461512,
            -0.001387720349780796
        ],
        "default_weight": 0.17184125110010898
      }
    ],
    [
      {
        "weights": [
            -0.08212290435573225,
            -0.9594160726313851,
            0.0,
            0.17915703319578608,
            0.17915703319578608,
            0.17915703319578608,
            0.17915703319578608,
            0.4698161603113191,
            3.661144885133627,
            0.7899994479935628,
            0.6481903915050107,
            0.4669285398680896,
            -0.7249594588594087,
            1.0527551075948598,
            -0.5214947467907488,
            0.41041496760425944,
            -0.46573565575393155,
            0.5737770989303824,
            -0.04281013516651039,
            0.761011627244954,
            0.06643822836176351,
            -0.007948691184668186,
            -1.0895235182122793,
            -0.020431134984182746,
            0.2515185154609912,
            0.3182030583381614,
            -0.005416780454060294,
            -0.0026561940250381284
        ],
        "default_weight": 0.587117354941157
      },
      {
        "weights": [
            0.9979631096296605,
            -0.5931887658708009,
            0.0,
            0.3086773105367247,
            0.3086773105367247,
            0.3086773105367247,
            0.3086773105367247,
            -1.6934213103327773,
            -1.2868174084451602,
            -0.11889410078985317,
            1.1919682440061528,
            -0.3395190785399517,
            -1.2608724688317228,
            -1.0670568802763027,
            -0.050425741706588076,
            -0.036714848996349345,
            -0.04222890506129771,
            -0.026040747866289366,
            -0.03253006882260906,
            -0.017698213800751567,
            -0.019070706918369467,
            -0.001680298496286648,
            -0.06024251734530187,
            -0.0030023557006199964,
            -0.013398459889923994,
            -0.009219814980940126,
            -0.0011098608756879627,
            -5.559689669071023E-4
        ],
        "default_weight": -1.661078778991947
      }
    ]
  ]

}